{"neuronCounts":[5,10,8],"classes":["car","fish","house","tree","bicycle","guitar","pencil","clock"],"network":{"levels":[{"inputs":[0.18,0.44794188861985473,0.0813202658847764,0.7407592880819288,0.23283511919920077],"outputs":[-0.2897000033636186,-0.33103269342992214,-0.6630705162013454,0.20979341401869114,-0.9144022802902732,0.13993295693524674,0.2537944707382612,0.30156543992067436,0.5921632961568958,0.10841359248664575],"biases":[-0.6356125904426579,-0.4917891599810442,0.10833117594595798,0.19127615230940798,-0.9837724941689361,-0.0556550300388432,0.6618391706321889,0.09621670845053742,0.4868037464631314,0.4326368621550163],"weights":[[-0.8811271668609226,0.14284151645869603,-0.35116486395847524,-0.16007264444677105,-0.27993025943362193,0.46755350794892436,-0.9092076007052037,0.894076885854167,0.5461724363506151,0.8227300335085306],[0.3362754654837179,0.80221692185681,-0.7454391893068584,-0.5538072593961165,0.511208736246322,-0.8203363581093641,0.4140299292593479,0.8499744672244369,0.42718718816157697,-0.8438333779611358],[0.20177231254694394,0.018908792117446005,-0.3304237592507242,-0.9129238454840638,0.7466501007000859,-0.766753009127239,0.9276502625595788,0.6182711462233814,-0.5039126808936372,0.04357849602744368],[0.520839564759445,-0.09697623114584752,-0.7510073940422437,0.2178695124299419,-0.8420399278199446,0.7166851352930839,-0.8818660372808726,-0.7775106943673662,0.1950444090861465,-0.24450113975812604],[-0.2442933088401018,-0.7170657774190565,0.3165509514849547,0.9080072571900795,-0.7969235728835464,0.048433404374382594,0.6598442306019625,0.8547736994797526,-0.854602296369094,0.3593705464553585]]},{"inputs":[-0.2897000033636186,-0.33103269342992214,-0.6630705162013454,0.20979341401869114,-0.9144022802902732,0.13993295693524674,0.2537944707382612,0.30156543992067436,0.5921632961568958,0.10841359248664575],"outputs":[0.30190419021418125,-0.7338343139619877,-0.7560125301783822,-0.775647816923677,0.04695390097439899,-0.6961402405299157,0.5475995680778813,0.5605756421777084],"biases":[-0.860780541688364,-0.11956445324280462,-0.4864844969952573,-0.5734887052129745,-0.4130160249206134,0.12008808824821449,0.6285262294647915,-0.7243500981536704],"weights":[[-0.42577236826947784,0.4886360768402995,-0.7786328984718627,-0.19960313599824975,0.8434645103415965,-0.3856680959873726,-0.7227545919291023,0.9412054025159371],[0.9000282661941381,-0.8709978798345501,0.9917054449006386,0.7653207923483345,0.5545343998702514,-0.16731660291500106,-0.7237721539982531,-0.8723754048402577],[-0.6244597406011656,0.11346857133878174,-0.7960732834851929,-0.6112984070902447,-0.680928465859326,-0.3901499890773241,-0.5120317110075323,-0.6171929235360287],[0.5055234342468395,-0.274930473091723,0.6295758010177126,-0.26203088258843144,0.006124032809996294,-0.7579999563572919,0.19246292726746406,0.7713938699096201],[-0.7647437117868034,0.38765270751555336,0.5246630726979529,0.33258219821628066,-0.3391127016588218,0.6861472519455352,0.8580642776253935,-0.8867094027556868],[-0.06426678171862665,-0.7756787781221535,0.2406742477279762,-0.6323839002628038,-0.9126575636393688,-0.5873641809982915,-0.72435900874776,-0.19042243042617857],[0.22715398108736906,-0.4922619515030058,-0.8176463146451498,-0.4297432607678924,-0.2580709444634066,-0.2627078813157806,0.6903905504974741,-0.20484521633346997],[0.7388227908266796,-0.2464018211334582,-0.6971684469348083,0.5546711685951324,0.11296711702602735,0.11132807164210856,0.5268065362622396,-0.41312765487557224],[-0.32998469686009324,-0.4213596984727648,-0.3755482880008816,-0.4491507378522446,0.6531574381174208,-0.8440509969987815,-0.5339915791600522,0.38365426035141903],[0.47531681360430644,0.7424432810107104,0.26419800711396935,-0.14141057129334555,-0.946224739000141,-0.03805540488457293,0.2366783353804256,-0.5898349714324977]]}]}}